digraph Tree {
node [shape=box] ;
0 [label="X[0] <= 0.5\ngini = 0.527\nsamples = 59\nvalue = [28, 55, 0, 3, 3, 1]"] ;
1 [label="X[1] <= 17.738\ngini = 0.175\nsamples = 22\nvalue = [28, 0, 0, 0, 3, 0]"] ;
0 -> 1 [labeldistance=2.5, labelangle=45, headlabel="True"] ;
2 [label="gini = 0.0\nsamples = 2\nvalue = [0, 0, 0, 0, 3, 0]"] ;
1 -> 2 ;
3 [label="gini = 0.0\nsamples = 20\nvalue = [28, 0, 0, 0, 0, 0]"] ;
1 -> 3 ;
4 [label="X[2] <= 1.5\ngini = 0.128\nsamples = 37\nvalue = [0, 55, 0, 3, 0, 1]"] ;
0 -> 4 [labeldistance=2.5, labelangle=-45, headlabel="False"] ;
5 [label="X[1] <= 17.019\ngini = 0.165\nsamples = 23\nvalue = [0, 30, 0, 3, 0, 0]"] ;
4 -> 5 ;
6 [label="gini = 0.0\nsamples = 2\nvalue = [0, 0, 0, 3, 0, 0]"] ;
5 -> 6 ;
7 [label="gini = 0.0\nsamples = 21\nvalue = [0, 30, 0, 0, 0, 0]"] ;
5 -> 7 ;
8 [label="X[1] <= 19.913\ngini = 0.074\nsamples = 14\nvalue = [0, 25, 0, 0, 0, 1]"] ;
4 -> 8 ;
9 [label="gini = 0.0\nsamples = 1\nvalue = [0, 0, 0, 0, 0, 1]"] ;
8 -> 9 ;
10 [label="gini = 0.0\nsamples = 13\nvalue = [0, 25, 0, 0, 0, 0]"] ;
8 -> 10 ;
}